{
  "labels": {
    "labels": [
      "Tech",
      "Garage",
      "Jungle"
    ],
    "rows": 3
  },
  "mlp": {
    "layers": [
      {
        "activation": 1,
        "biases": [
          -0.1620828995548871,
          0.24575813581681738,
          -0.22833138427186206,
          0.15017810550591754,
          0.22906228317196545
        ],
        "cols": 5,
        "rows": 204,
        "weights": [
          [
            -0.2542525379979586,
            -0.3428285279806016,
            -0.16108343215476498,
            0.14351132022615015,
            0.02295064499935652
          ],
          [
            -0.1720872818660817,
            -0.25869607409005685,
            -0.1078840474414379,
            0.28116643916416484,
            0.011953795695452712
          ],
          [
            -0.01206843757983801,
            -0.30484492753153397,
            0.18321989657496354,
            0.2547068083117988,
            -0.17126202321483028
          ],
          [
            -0.08869318710094824,
            0.04001950191812056,
            -0.04353314933735,
            -0.033825535677390044,
            -0.17161744359895117
          ],
          [
            -0.06320956913929529,
            0.054190941537179904,
            0.3268458781100812,
            -0.0468999942626276,
            -0.009314566867884549
          ],
          [
            0.313504509607806,
            0.2917285076844442,
            0.18137327470540643,
            -0.28047417298130284,
            -0.20035311608110815
          ],
          [
            0.22550252273080815,
            0.06598830556886681,
            0.6289605944002485,
            -0.20270128784916414,
            -0.4959741403038464
          ],
          [
            -0.004387034333766131,
            -0.27105213387086224,
            0.48694734427872977,
            0.26695102836494283,
            -0.5038828195113242
          ],
          [
            0.11826725858773172,
            -0.081008675974329,
            0.21655874280750392,
            0.004954656662226619,
            -0.23022624740685516
          ],
          [
            0.2295748344606946,
            -0.021673315412503297,
            0.37853708883032244,
            -0.18828577485202863,
            -0.29820980626960875
          ],
          [
            -0.02662339306675489,
            0.12175351411163601,
            0.08812645639941617,
            0.03885586772075615,
            -0.09679508202009258
          ],
          [
            -0.35764393410765644,
            -0.33782708208148104,
            0.016958866289825802,
            0.5310593777760106,
            -0.18730326242800788
          ],
          [
            -0.33951706845727403,
            -0.1894170306303178,
            -0.11932097498279873,
            0.5549320551065358,
            0.010430493414944137
          ],
          [
            -0.23528545812853696,
            -0.09595867412018677,
            -0.10550892061690056,
            0.3159343383096919,
            0.07361731087660707
          ],
          [
            -0.10952004592079873,
            -0.06906018698090462,
            -0.11388320748025063,
            0.2627876935554386,
            0.2260392562302529
          ],
          [
            0.1303169993294216,
            0.18375754040743641,
            -0.0918071905206682,
            -0.24341391448981875,
            -0.02331945570024658
          ],
          [
            0.0005941790988596676,
            0.29866941104027184,
            -0.04981549700671887,
            -0.19288677971777335,
            0.16779681064647167
          ],
          [
            0.16507684600581057,
            -0.055086828844841666,
            0.08195322028881688,
            0.1637278612173984,
            -0.36414392370546067
          ],
          [
            -0.002800973100699409,
            0.0883358393986877,
            0.08671026956652393,
            -0.3009048375771821,
            -0.11799031823641803
          ],
          [
            0.06798777270448339,
            0.3985525506832221,
            0.14542044066759416,
            -0.2954933883175696,
            0.08867577965249235
          ],
          [
            0.051406193378428285,
            0.3449697538496409,
            0.24533820733304781,
            -0.2527829402329032,
            -0.2557005146042166
          ],
          [
            0.08151809016653846,
            -0.15718568272763753,
            0.13655965915565135,
            0.020993223159341715,
            -0.2949117071422187
          ],
          [
            0.050530515605866994,
            -0.3555431074486612,
            0.25198026344006574,
            0.3383915968933887,
            -0.061536933217702976
          ],
          [
            -0.23980404109396505,
            -0.3107308839550521,
            0.14810090378773832,
            0.372205151659771,
            -0.2931105491570744
          ],
          [
            -0.2784934069167069,
            -0.39530137115924396,
            0.10904423580444662,
            0.38381975730495277,
            -0.1787058683923693
          ],
          [
            0.021735136835595227,
            -0.01634970456608801,
            0.12459050843943816,
            0.012805627061318386,
            -0.21550279838479156
          ],
          [
            -0.07272655364845336,
            -0.04112892889169197,
            0.04295370911528947,
            -0.08805912389994835,
            0.01194485716607582
          ],
          [
            0.049917599195429894,
            -0.07922760406539396,
            0.16358640715404363,
            0.009609435874397458,
            -0.11637162935052062
          ],
          [
            0.1647739109992129,
            0.11765408554475451,
            0.2245385664951448,
            -0.12078089155297757,
            -0.04386549271977417
          ],
          [
            0.17050605904068045,
            -0.11658235816232275,
            0.37292802160134153,
            0.017132657886692132,
            -0.09214702884051335
          ],
          [
            0.18623230060181675,
            -0.03661729175551234,
            0.3614020222182515,
            -0.1372056406843996,
            -0.18319198038128862
          ],
          [
            0.12802840490700626,
            -0.01676911150035298,
            0.3521136225120937,
            0.006121101594341717,
            -0.21961579064005693
          ],
          [
            0.02698916021750961,
            0.16351552352209198,
            0.15345699014388473,
            0.031714001897400645,
            -0.1727937696751474
          ],
          [
            -0.18055185094831144,
            -0.48010593641022004,
            0.06937063683376214,
            0.25653752936068386,
            -0.0738770767421377
          ],
          [
            -0.04578755748404824,
            -0.27172004094875013,
            0.10063617793653372,
            0.0883677638582753,
            -0.1472263250316036
          ],
          [
            -0.03565551214188884,
            -0.484320556822325,
            0.18929853108968384,
            0.39172555460786,
            -0.2297921753461696
          ],
          [
            -0.11473679447853083,
            -0.24376039022234341,
            0.07674179909311926,
            0.35158049728839963,
            -0.17106046377645448
          ],
          [
            -0.15746125930530339,
            -0.1629051087648113,
            -0.1101690385000258,
            -0.03692983390035473,
            -0.05473900105782063
          ],
          [
            -0.1537832768554646,
            -0.17951549334599062,
            0.1989468148015722,
            -0.08091122823651746,
            0.003403147658648643
          ],
          [
            -0.09056038868193458,
            -0.23644063521140912,
            -0.027955418994915247,
            0.2081833763159296,
            -0.04805627004617235
          ],
          [
            0.21463633964183534,
            0.5447996022521676,
            0.09113629433838781,
            -0.34507198659198296,
            0.10624399610158454
          ],
          [
            0.3575444775066937,
            0.24761987178061443,
            0.13577550038094258,
            -0.17700671067588405,
            -0.01940759425068551
          ],
          [
            0.174137827505009,
            0.3297732911310693,
            0.1330244834451626,
            -0.32995959643295725,
            -0.2132055964578753
          ],
          [
            0.1318822014403054,
            0.19634337987450415,
            0.2550597324640572,
            -0.29205220538870375,
            -0.26877399761609594
          ],
          [
            -0.04853891938994501,
            -0.12652934942188845,
            0.12402365711781765,
            -0.11944745439110527,
            -0.23196541042218352
          ],
          [
            0.05161566705422545,
            -0.15059207480765707,
            0.15935863398614608,
            0.13467498206227585,
            -0.156998244507751
          ],
          [
            -0.026865422510635503,
            -0.30287358924906393,
            0.0071437225487550665,
            0.1442462827796622,
            -0.24620510495097234
          ],
          [
            -0.11917099546392895,
            -0.2671358321218889,
            0.0875926676863156,
            0.37126579259149767,
            -0.11281963798223009
          ],
          [
            -0.14046086860934762,
            -0.23687782774729246,
            -0.05998999119479734,
            0.09572086567848467,
            -0.05417191122616459
          ],
          [
            0.15080454309562716,
            -0.15133369491725307,
            0.016961221610323467,
            -0.04098250085127291,
            0.03803192682062499
          ],
          [
            -0.13569398876484892,
            -0.13170400208709013,
            -0.057226324402279115,
            -0.032511090282354146,
            0.0796670232415487
          ],
          [
            -0.15781721128944953,
            0.06710242303810164,
            -0.2340418048594061,
            0.017806778212537226,
            0.15006505968359593
          ],
          [
            -0.007746467653386742,
            0.08875864408978681,
            -0.2884886803366704,
            0.22046908426054515,
            0.19924435725180045
          ],
          [
            -0.14142637787440918,
            0.24635256087226662,
            -0.07605104168161296,
            0.13705126837762452,
            0.20807331473259247
          ],
          [
            -0.19692659846410504,
            -0.1539850175331113,
            -0.12209073183641288,
            0.18402221088978304,
            0.004503157746848072
          ],
          [
            -0.14284193157619693,
            -0.2435205718034349,
            -0.13507328611279154,
            0.14387742945063442,
            0.11188419049480575
          ],
          [
            -0.023438326950376735,
            -0.2647993715274983,
            0.24352516958379103,
            0.022920777381784496,
            -0.12301565852854343
          ],
          [
            -0.06678592077682192,
            -0.5855149014393767,
            0.40519843037727077,
            0.5668297253773409,
            -0.24398672321591158
          ],
          [
            -0.09504510284860561,
            -0.4617429087181843,
            0.31156455818080964,
            0.5117202374411063,
            -0.42775384377580866
          ],
          [
            -0.17573369891402732,
            -0.6620752918514049,
            0.30793504186340703,
            0.5656397286852531,
            -0.23324166368672225
          ],
          [
            -0.0697703487498391,
            -0.5265832095516764,
            0.19687672416897756,
            0.3812530544376544,
            -0.07278472569467043
          ],
          [
            -0.10139754878793017,
            0.03111246528716577,
            0.13364099997271117,
            -0.14581489687368146,
            -0.34480977381994476
          ],
          [
            0.08546888815423674,
            0.08258379464331686,
            0.13946519883040207,
            -0.07869887858805587,
            -0.16191205722429547
          ],
          [
            0.1987693843811328,
            0.20667675875478866,
            0.4004854992736367,
            -0.36894966585953337,
            -0.15566074565838808
          ],
          [
            0.3977839281613901,
            0.8232568877036277,
            0.4169924325831569,
            -0.9108567231031623,
            -0.13887151465141032
          ],
          [
            0.2764694158917874,
            0.4817294482329069,
            -0.09531030387033029,
            -0.38582825559508854,
            0.21952587976762009
          ],
          [
            -0.11260968422497138,
            -0.005925621663915342,
            0.024685736822341948,
            -0.047383212304304506,
            0.016557978985272767
          ],
          [
            -0.18705209127111988,
            0.14608386842244525,
            -0.040330001953840726,
            0.05702635210659507,
            0.09283291149138552
          ],
          [
            -0.006425657497357619,
            -0.2831246263392585,
            -0.2849263062291244,
            0.35869572422922863,
            0.09549157167544148
          ],
          [
            0.011761130513033239,
            -0.3176622338060317,
            0.1205531591767826,
            0.2580028934481526,
            -0.02566025007858962
          ],
          [
            -0.017580041579096782,
            -0.6086204828792224,
            0.12765940765482794,
            0.5554686159507203,
            -0.10550082204297236
          ],
          [
            -0.11749217486839365,
            -0.03138386850189552,
            0.213238219190886,
            0.11914633009658748,
            -0.2934318115948486
          ],
          [
            0.14731065226860537,
            0.028855663762396996,
            0.2971205022013003,
            0.050839040342333594,
            -0.08289456082113375
          ],
          [
            0.023533922342941632,
            0.29956280005278596,
            0.2240193669639233,
            -0.21845274537263742,
            -0.10507074130497716
          ],
          [
            0.11302309957538285,
            0.19130477005440602,
            0.11002808210362988,
            -0.23851119112318037,
            -0.34306892008850987
          ],
          [
            0.1324266849400679,
            -0.24880396883812175,
            0.23156631542613945,
            0.032987118255268615,
            -0.23145057300972877
          ],
          [
            0.14656646728137118,
            0.020251486459891943,
            0.17149746747342498,
            -0.3097584854907769,
            -0.09686722428481166
          ],
          [
            0.04034909283328067,
            -0.25419844828082416,
            0.3140709318841831,
            0.08921922947066195,
            -0.22803405717549843
          ],
          [
            -0.014938566938119385,
            0.023477840356082674,
            0.005346038004039965,
            -0.08640674196744579,
            -0.21498339134684616
          ],
          [
            0.04951502063542568,
            -0.3916108479200162,
            0.09667827044230252,
            0.11501861117307845,
            -0.0793603641295695
          ],
          [
            -0.28187653714668265,
            -0.4297665872261639,
            0.01891453281194679,
            0.28813601018867435,
            -0.09138182572753692
          ],
          [
            -0.2134923943382031,
            -0.48164638702127227,
            0.2850191372884362,
            0.5391112815276258,
            -0.29125041734365936
          ],
          [
            -0.09579585839082326,
            -0.26235665876073455,
            0.012762477886755863,
            0.38124836575818377,
            -0.21220956706088417
          ],
          [
            0.13380919094890462,
            -0.17107980992783783,
            0.27015773391342635,
            0.05951656488967858,
            -0.1371216674464211
          ],
          [
            0.15737941631486388,
            -0.1671155809703259,
            0.2569326081384708,
            -0.14391070497967523,
            -0.2279728132830149
          ],
          [
            0.1791601806511294,
            -0.020570091573231766,
            0.33104667779618374,
            -0.10809351633759669,
            -0.2142699053745352
          ],
          [
            0.3768727550011271,
            0.5501486044329326,
            0.23084532001086533,
            -0.63330016617372,
            0.0500158183781131
          ],
          [
            0.04793736354206924,
            0.22286839535932276,
            0.2960036632783268,
            -0.10506939228819602,
            0.09310475153768702
          ],
          [
            -0.04896737865686663,
            0.1115142283255907,
            -0.007296415252692605,
            -0.3281004525014259,
            -0.09727235791176893
          ],
          [
            -0.1706103890320132,
            0.012860927302861785,
            -0.23464286435121498,
            -0.1013699178035685,
            0.2050225430832928
          ],
          [
            0.014543904405812973,
            0.10452436570079479,
            -0.006860022803023866,
            0.15980672654785524,
            -0.04436157893998721
          ],
          [
            -0.11025578085741848,
            0.17891633292207235,
            -0.2818941487363,
            0.1568169814859215,
            0.28378138049781604
          ],
          [
            -0.16719438726828853,
            -0.07465528205905386,
            -0.07844121152862477,
            0.19827434704654442,
            0.1348362636002502
          ],
          [
            -0.1752587023989888,
            -0.3038790009524505,
            -0.10341182584612904,
            0.3832281060919038,
            -0.09460243408375252
          ],
          [
            -0.19247449158974056,
            -0.23294484315738406,
            -0.030513768788259808,
            0.3191992271781791,
            -0.04142437282177319
          ],
          [
            0.040879051352258076,
            -0.1152583760594369,
            0.3038089845672594,
            0.014146263908914889,
            -0.2825638108141235
          ],
          [
            -0.10732197751428392,
            -0.11774893098974153,
            0.17740824233469113,
            0.03753967774116381,
            -0.3270577869321977
          ],
          [
            0.14395829270848035,
            -0.21669153447324263,
            0.23949528878285142,
            -0.004114809095131712,
            -0.20812415884285812
          ],
          [
            0.0045272514318363275,
            -0.5174037482672109,
            0.5506537063159251,
            0.3770702495831228,
            -0.5006667844139414
          ],
          [
            -0.06818570787100832,
            -0.3490015340007981,
            0.5901439187928667,
            0.08171982714198037,
            -0.3751485271207674
          ],
          [
            0.037287387755173755,
            -0.3695424822223137,
            0.3107394611493186,
            0.21986191916115247,
            -0.4258874196185769
          ],
          [
            0.13732555177361594,
            -0.08284082181999285,
            0.26228937227035776,
            0.025005067921829577,
            -0.21258718100702864
          ],
          [
            -0.12761119974439,
            0.38814211907070195,
            -0.03534832447156496,
            -0.22429645803382262,
            0.08020664881535845
          ],
          [
            -0.1114920476220162,
            0.1032424666710815,
            -0.13427645261546475,
            0.188860483635956,
            0.00028012492532586403
          ],
          [
            -0.22869929616660067,
            -0.10759853500191302,
            -0.1984970073543618,
            0.39180698795898744,
            0.10833549342264802
          ],
          [
            -0.1375464266354358,
            0.10744566763241807,
            -0.1226860435366787,
            0.11067198934744485,
            0.09477145563249957
          ],
          [
            -0.006616425416955224,
            0.0011213194040973714,
            -0.13686905785058864,
            -0.13195648770633628,
            0.07775237133017832
          ],
          [
            -0.145614945234972,
            0.05467568503735866,
            -0.029031418001200307,
            0.17731748898799313,
            0.013822323910117403
          ],
          [
            -0.08946583307833382,
            0.13107051002670672,
            0.032379705826451936,
            0.10536432105746417,
            -0.06331092714103827
          ],
          [
            -0.08533432370412837,
            -0.10685539007072326,
            -0.01838007668537211,
            -0.04615528333851673,
            -0.015152420194476176
          ],
          [
            -0.16908503188781787,
            -0.10529222610493769,
            -0.1503020500672581,
            0.20195013971357656,
            0.06390547414870498
          ],
          [
            -0.14924949731065162,
            -0.18228277299687629,
            -0.22522636743675709,
            0.11525643854305587,
            0.1060739988075762
          ],
          [
            -0.26482176081256675,
            0.11441492464629287,
            -0.19120528316379232,
            0.08492924502777316,
            0.3293853712642969
          ],
          [
            -0.1798051415724337,
            -0.038737821226787345,
            -0.12966070322812523,
            -0.08310551541397868,
            0.04315202635358961
          ],
          [
            -0.15252264581126806,
            -0.05974445477147388,
            -0.009572161655070086,
            -0.06781934066651218,
            0.07930303328943636
          ],
          [
            0.09939138715327736,
            0.0987311678816566,
            -0.11339777334191112,
            -0.10606978212259895,
            -0.1253680639574372
          ],
          [
            0.19842206390400413,
            0.4482658959448584,
            -0.11249584528988671,
            -0.1468951180498199,
            0.11220589211656708
          ],
          [
            0.0886580387973157,
            0.13877149207176562,
            0.1150998952592404,
            -0.04080335879938542,
            0.003120952449473029
          ],
          [
            -0.12119002655765752,
            -0.22569020030334366,
            -0.14686254137744478,
            0.04103702196784601,
            0.020024524400907254
          ],
          [
            0.060304774416175745,
            0.03282552076293971,
            -0.14051207193099055,
            -0.06872306762078902,
            0.1620117149273475
          ],
          [
            -0.02529094179275197,
            0.18145748287908442,
            0.09551493717733789,
            0.010430331633595738,
            0.23379952897708417
          ],
          [
            0.1650512787185219,
            0.3916618280628889,
            -0.1083602945664263,
            -0.39772720421771235,
            0.05584373536569535
          ],
          [
            0.23824689025365103,
            0.5658235770447168,
            0.008511918458585057,
            -0.30566334560663383,
            0.19309091180284466
          ],
          [
            0.2632406690596467,
            0.05206327657799772,
            0.14303174927476134,
            -0.42959945966506896,
            0.006920695409089964
          ],
          [
            -0.09443073048192797,
            -0.030564288487088254,
            -0.022193908750112745,
            0.4031773330400824,
            0.15509104804469478
          ],
          [
            -0.11734938821672747,
            0.14969692396587045,
            -0.26530147610248067,
            0.2075093308027814,
            0.15134641059072124
          ],
          [
            0.1170436812998809,
            0.07812261149493065,
            -0.021833619539192942,
            0.21018695137804305,
            0.09493296645382461
          ],
          [
            -0.1117004167936974,
            -0.011988487252938832,
            -0.028899582559292248,
            0.2400323498952786,
            0.09595521364897655
          ],
          [
            -0.09523889003926513,
            -0.08812696124859215,
            -0.2868945241409314,
            0.47889322165710446,
            0.3281025898355243
          ],
          [
            -0.30034457406633597,
            0.18720096804805142,
            -0.3456757043477409,
            0.25907679607636824,
            0.4467606286041487
          ],
          [
            -0.07292196458569726,
            0.1150923638687922,
            -0.1650952913041346,
            0.0753919905043986,
            0.39310019270138225
          ],
          [
            -0.15390200950912386,
            0.09194387496690302,
            -0.34463463912780995,
            0.18566611683655165,
            0.18302474267404814
          ],
          [
            0.08473789645775626,
            0.0025246536151158,
            -0.17102124112719783,
            -0.10370201594494408,
            -0.10836933863524895
          ],
          [
            -0.1729614726946971,
            -0.702042376866999,
            0.0938678056500757,
            0.5460298122841007,
            -0.388162576530692
          ],
          [
            -0.1051135724278204,
            -0.24018209536004795,
            0.07325581037291044,
            0.3319673021473487,
            -0.10730853699699397
          ],
          [
            -0.05319137596975505,
            0.010539769577654207,
            0.08907717285326394,
            -0.022034541224110187,
            -0.05073887086946831
          ],
          [
            0.14808534031194226,
            0.2505281422141422,
            0.041850743632396346,
            -0.03659034091971506,
            -0.03949076786561347
          ],
          [
            0.19698108120996663,
            0.06387735420496705,
            0.11273544628904977,
            -0.1520118047720874,
            0.08225121535326207
          ],
          [
            -0.05143162156421876,
            0.037075058538111834,
            0.030174634537579972,
            0.13885253431902908,
            0.03484642419755921
          ],
          [
            0.1388628853027605,
            -0.02525335280589816,
            0.15169131238134204,
            -0.0990168213405525,
            0.1268198351803878
          ],
          [
            -0.1037627040807508,
            0.08050367659213176,
            0.010974124368073171,
            -0.03696017570177452,
            -0.009127785506123823
          ],
          [
            0.06510565171037089,
            0.1111012663129081,
            -0.06496426553055738,
            -0.24252208125058128,
            0.3309941583892083
          ],
          [
            0.19089916460164005,
            0.15315167153379872,
            -0.18023878708229935,
            -0.14846741259416235,
            0.19597851114989961
          ],
          [
            0.04963478119238887,
            -0.18598365397706682,
            0.16974197374764757,
            0.1591945881904007,
            0.06228976540878677
          ],
          [
            0.03351188172011532,
            0.3905521562621607,
            -0.04404669725925964,
            -0.08720166820758543,
            -0.13423795085391108
          ],
          [
            -0.2510258451330454,
            0.07766662029869006,
            -0.40137413467819805,
            0.08198704823631665,
            0.329413786328029
          ],
          [
            -0.10421232026700701,
            -0.13505420442717003,
            -0.16200935870384048,
            0.01420794988942027,
            0.023648594991633118
          ],
          [
            -0.02414292391086067,
            0.028995238028531184,
            -0.05165422315394467,
            -0.13623404955525742,
            -0.026998329754930505
          ],
          [
            0.04136221569041306,
            -0.2465775010719416,
            -0.10303856805093692,
            0.14537420021107564,
            -0.1158716176444281
          ],
          [
            -0.08864335548190583,
            -0.30241440841482725,
            0.04686197323756969,
            0.2509465355062773,
            -0.14900987045230807
          ],
          [
            0.12152358804891258,
            0.07335371935318513,
            -0.08183215440631739,
            -0.006624010661019955,
            0.1717264549606574
          ],
          [
            2.8726837009328064e-05,
            0.0694072052875419,
            -0.12458980197959311,
            0.23708888932956892,
            0.12580204466524894
          ],
          [
            -0.01814994160640067,
            -0.06005201283703729,
            -0.012576820702094307,
            -0.05533925515454206,
            0.06130160595876457
          ],
          [
            -0.006961552349320505,
            -0.042238267174305864,
            -0.19489157484805966,
            0.05034309919750145,
            0.2834309309530307
          ],
          [
            -0.13279434146490932,
            0.0714721975796981,
            -0.16946436762762926,
            0.230055614963117,
            0.3271218741808167
          ],
          [
            -0.1766704394198969,
            -0.01569636096671451,
            -0.31517011519303245,
            0.0768142752429243,
            0.254558063364157
          ],
          [
            -0.09550340081907895,
            0.06565709072883395,
            0.1421588965695934,
            0.11917645547505645,
            -0.09711434044700964
          ],
          [
            0.11865518554074775,
            0.194759136352289,
            -0.1048376674323347,
            -0.10724457848183298,
            0.14889337746935388
          ],
          [
            -0.14109185263528948,
            -0.09008474904062527,
            -0.016060340032321294,
            0.10841570078794158,
            0.050028064569579284
          ],
          [
            0.02506380408721683,
            0.022283145988645937,
            -0.1503197466489451,
            -0.0009193297912608826,
            0.046869111382478505
          ],
          [
            -0.011579132853053982,
            -0.0743925888094222,
            0.09099991658924805,
            0.17603386925233802,
            -0.1663623781929422
          ],
          [
            0.24705705923663288,
            0.34502926922184873,
            -0.01923132178611277,
            -0.316455788429837,
            0.046043171654344024
          ],
          [
            -0.02975530388018146,
            0.2916288561506586,
            -0.018066710495552186,
            -0.25545155596494107,
            0.020430664203361835
          ],
          [
            0.022250025043224566,
            0.06337292929493331,
            -0.09692303637973253,
            0.02723735575903754,
            0.13929603526956136
          ],
          [
            -0.12666593216401578,
            0.16120041643812186,
            -0.1706849121234781,
            -0.12486165172044598,
            0.2009060028186362
          ],
          [
            0.01893366114068833,
            0.11379602226065427,
            0.17522332291851647,
            -0.2295466018634808,
            0.038570251426666396
          ],
          [
            -0.14613023943790604,
            0.12103595887163221,
            -0.30656842508331766,
            0.18624732439494235,
            0.2278610705513202
          ],
          [
            -0.17385054186486545,
            -0.16136697242216658,
            -0.3366983506196218,
            0.04193734248600256,
            0.31298514635933555
          ],
          [
            -0.25864106842521867,
            0.027897967126391133,
            -0.34408071117550626,
            0.12877883363263742,
            0.19902230114233727
          ],
          [
            -0.11576308559509531,
            -0.228267843086386,
            0.056177503060978816,
            0.17709789194469405,
            -0.17969618907195864
          ],
          [
            0.06352917952046835,
            0.06288824209127465,
            -0.23715338560017507,
            -0.08937089168471393,
            0.34610993592309114
          ],
          [
            -0.03707784245189859,
            0.2031722117426332,
            -0.22857369053682922,
            -0.023961355405271983,
            0.20029765131219296
          ],
          [
            -0.07293554841600444,
            0.006699840366566342,
            -0.03659032971492682,
            0.2005633402047762,
            0.24594711620700532
          ],
          [
            -0.23821634808285785,
            -0.28952693687508946,
            -0.11462954497420237,
            0.228115134683675,
            -0.10036107100828211
          ],
          [
            -0.017434934775343365,
            -0.06609471700592465,
            -0.04424802066613777,
            0.0005333887237486235,
            0.030298089974604942
          ],
          [
            0.014460621803785883,
            -0.16233830839455182,
            -0.1520277517956112,
            0.269463786477178,
            0.0599171069056088
          ],
          [
            0.00565593244406824,
            -0.12870884466674304,
            0.13357701207132067,
            0.3713283958516801,
            0.0659556090410495
          ],
          [
            0.10709837551172678,
            -0.020793267377630906,
            -0.1844551918947142,
            0.031788501239245315,
            0.1556606366346756
          ],
          [
            -0.2357509918625005,
            0.023053935340362514,
            -0.2670237951352028,
            0.19827708640748357,
            0.13223211338583415
          ],
          [
            -0.0015433145432238661,
            -0.008513704073395387,
            -0.20372045095919133,
            0.058477487274237634,
            0.2272597975741984
          ],
          [
            0.24103674037202918,
            0.24631289077174734,
            -0.19038685472746023,
            -0.2912983152071922,
            -0.0024556886079746786
          ],
          [
            0.015838132420777612,
            0.3245939763622747,
            -0.029614314316449793,
            -0.2052946794693817,
            0.1442400941690658
          ],
          [
            -0.034198975400450284,
            0.23624134243492448,
            0.1879359668676301,
            -0.2780780988034039,
            0.025405323414437603
          ],
          [
            -0.025434790581706355,
            -0.1961234573412199,
            -0.21681268094966402,
            0.23432033045786263,
            0.01665787994198241
          ],
          [
            -0.050112965455639306,
            0.06041490236860452,
            0.19588117708861708,
            -0.042581233320839774,
            -0.1338933967721206
          ],
          [
            -0.1326469287478888,
            -0.2741293562787836,
            0.16775204033602212,
            0.10112188812785121,
            -0.05983445969851024
          ],
          [
            0.021762326315579745,
            0.657686622959384,
            -0.2927194864990929,
            -0.27252367767072483,
            0.18720696433223366
          ],
          [
            -0.19787221816638734,
            0.19992007450628568,
            -0.25917517898993886,
            -0.03800924073374456,
            0.2943574850571424
          ],
          [
            0.012353980371411227,
            0.053926669550223315,
            -0.0013238470801890017,
            0.11266862489516527,
            -0.07065023010651811
          ],
          [
            -0.14627458950885605,
            -0.09068250013924545,
            -0.10809518644292188,
            -0.09086597230437328,
            0.12940361264340433
          ],
          [
            -0.16104520786084248,
            -0.03587330786120176,
            -0.13196132312690484,
            0.12181019559328236,
            -0.03532983850278304
          ],
          [
            -0.043864081404553584,
            -0.09817858779885844,
            0.027753102288615723,
            0.0433669265244957,
            0.17851685286755123
          ],
          [
            -0.1487365827270455,
            -0.02210794110254902,
            -0.190275853314671,
            0.23394426809361898,
            0.21353755006465455
          ],
          [
            -0.058829840739026945,
            0.06520056449060785,
            -0.4210986936034419,
            0.13223276963295844,
            0.25142468842220467
          ],
          [
            -0.23918640042740713,
            0.18239429216361402,
            -0.21277597160825776,
            0.025625426857901597,
            0.13429601874282443
          ],
          [
            -0.049592927010647526,
            0.02320106839562543,
            -0.0512730981559999,
            -0.014828546456203861,
            -0.010776562133856697
          ],
          [
            -0.015217326747283289,
            0.02007215422352355,
            -0.009545243936990291,
            0.09941730716130322,
            0.09214239184801808
          ],
          [
            -0.0896247041808216,
            0.06350887124993661,
            -0.13916364787234986,
            0.18560673565273883,
            0.1725102463920169
          ],
          [
            -0.19272269620447807,
            -0.1541631539252557,
            0.06268274707088245,
            0.11886079866338065,
            0.0977457191560525
          ],
          [
            -0.022858683049397633,
            0.17364759320737835,
            -0.36477390486657707,
            0.02294381877773963,
            0.34673069117995164
          ],
          [
            -0.08299796799847309,
            0.23419479675285834,
            0.07715600598972619,
            -0.005413743680801726,
            0.09912846261291863
          ],
          [
            0.15845629915632317,
            0.17668355964330038,
            0.2635326338297168,
            -0.2374710006608901,
            -0.032012709029750896
          ],
          [
            0.07775561157692674,
            0.28469104603199247,
            -0.05195977524632919,
            -0.2811204031017648,
            -0.054834439133182616
          ],
          [
            -0.17208654016131902,
            0.09219566770756751,
            -0.10591190245043054,
            0.18079293816596823,
            0.25713351392824974
          ]
        ]
      },
      {
        "activation": 1,
        "biases": [
          -1.2970423467262315,
          -0.37150003287385663,
          0.20566836760300125
        ],
        "cols": 3,
        "rows": 5,
        "weights": [
          [
            1.025237654857636,
            -1.2098878194149887,
            -1.8520675097765174
          ],
          [
            3.4274654196983354,
            -4.912041691342358,
            0.4317171061488075
          ],
          [
            1.4721922671944372,
            2.242547454209769,
            -4.355019551243763
          ],
          [
            -4.973149899329917,
            2.816733562339595,
            0.2735895426076912
          ],
          [
            -1.425700399804019,
            -2.991278624777123,
            3.6952784779714323
          ]
        ]
      }
    ]
  }
}
