{
  "labels": {
    "labels": [
      "Tech",
      "Jungle",
      "downtempo",
      "liquid",
      "afro-electronica"
    ],
    "rows": 5
  },
  "mlp": {
    "layers": [
      {
        "activation": 1,
        "biases": [
          -0.581863032903877,
          0.4484789988632921,
          0.17232796372511658,
          1.0990684857074091,
          -0.7738563149556252
        ],
        "cols": 5,
        "rows": 306,
        "weights": [
          [
            -0.03834208072043161,
            0.5404048893690047,
            -0.74990499473819,
            0.3617724433805781,
            -0.23836276825922703
          ],
          [
            -0.1597710864581186,
            0.35486728792755245,
            -0.3510664181933439,
            0.30448236865061673,
            -0.4268644462717145
          ],
          [
            -0.17847153988093692,
            0.2733618248953888,
            -0.03430731627369643,
            -0.017038562405072698,
            -0.49656613009933936
          ],
          [
            0.1475437794173304,
            0.2850948841248681,
            0.15563008965928612,
            -0.3604627460515714,
            -0.19298716708993516
          ],
          [
            -0.033897532921414265,
            0.01967733755453344,
            0.0993080095814686,
            -0.3064074524269428,
            0.2299300707551778
          ],
          [
            -0.37547985448041904,
            0.031161051209060556,
            0.2512547166235971,
            -0.02677607276309424,
            0.6698473790694164
          ],
          [
            0.059086578832006686,
            -0.0323620635166599,
            0.10315000240095129,
            -0.28324317930684584,
            0.38092366242615266
          ],
          [
            0.04707536306776324,
            0.012393015738405904,
            0.2495434705410084,
            0.09779542344752534,
            0.5974977858731738
          ],
          [
            -0.0015875640333991407,
            0.1757999065479485,
            0.012059930329291585,
            -0.13183358253980157,
            0.27186427634680516
          ],
          [
            -0.10137508416052046,
            -0.33873190825391253,
            0.32585866576740885,
            -0.07548829466298453,
            0.46492385875536824
          ],
          [
            0.2599612077884795,
            -0.18312825521460277,
            -0.20659952497573375,
            0.10177706370841323,
            0.38944647284699696
          ],
          [
            1.2911259440586567,
            -0.6210978123195173,
            -0.18752478296047342,
            0.613271333271818,
            -0.04805308843591763
          ],
          [
            0.7657948073304037,
            -0.12971133604243384,
            -0.3089843717578747,
            0.5814119594834664,
            -0.03611527923257005
          ],
          [
            -0.08132810893146437,
            0.17966640204630477,
            -0.10780882607876283,
            0.361907651053041,
            -0.07328242497383593
          ],
          [
            -0.09891661025908369,
            0.10371390725065217,
            0.03641389271416068,
            0.0019493980099847034,
            -0.14270028814342325
          ],
          [
            -8.364044416649965e-05,
            -0.11574616503615616,
            0.12690838805388152,
            -0.24669908475825425,
            -0.3107243195198821
          ],
          [
            0.33277118578765336,
            0.0657557834016922,
            0.0744572194156496,
            -0.2554936079783837,
            -0.19998419951532456
          ],
          [
            0.3904096542782656,
            0.13352355513620368,
            0.0702694130162094,
            -0.16619797911509498,
            0.03470519103936574
          ],
          [
            0.09168929610561605,
            0.4011242216375888,
            0.13947681251794367,
            -0.17504648212596824,
            -0.1465666311147139
          ],
          [
            -0.17826467721883216,
            0.05587781229641837,
            -0.08482280941138629,
            -0.028773890871084132,
            0.18241384848610145
          ],
          [
            -0.23311987227980172,
            0.044728065130848135,
            -0.131556583882807,
            0.18807606478504682,
            -0.050676385331273596
          ],
          [
            -0.334322306885348,
            0.5034092116937903,
            -0.054138104985278865,
            0.3116779632414409,
            -0.42591325530133545
          ],
          [
            0.08255046715509283,
            0.0877780316599031,
            -0.13424794178102883,
            0.22258999950767752,
            -0.09008743187862038
          ],
          [
            -0.07930137071905502,
            0.11415789439966761,
            -0.18746447607021016,
            0.2661063465803005,
            -0.24339594468461964
          ],
          [
            0.34030953728771685,
            -0.233030402834412,
            -0.29668454387402166,
            0.17137223345280128,
            0.033221203559461766
          ],
          [
            0.08460361809017343,
            -0.04546190145882948,
            -0.008409661722310325,
            0.0072679620370724295,
            0.25713246170410076
          ],
          [
            0.1021721569857145,
            0.025786087146754722,
            0.01258733862549219,
            0.014199204945844273,
            -0.05926499847674132
          ],
          [
            0.2563774367023092,
            -0.10550262192792353,
            -0.045113593133098,
            -0.13706900813529801,
            -0.02833987150518596
          ],
          [
            0.2541670505529308,
            -0.033362031415068806,
            0.07269101536224389,
            -0.1309895318828646,
            -0.01976480676278486
          ],
          [
            0.6169542523528918,
            0.07110338912363214,
            0.3764987485596144,
            0.02836363750999512,
            -0.33667991689659316
          ],
          [
            0.06154896532047352,
            0.08619535017226455,
            0.3553936548450374,
            -0.1633477923174883,
            -0.23079031878592493
          ],
          [
            -0.4201348956502697,
            0.17054109345692683,
            0.34253968714630334,
            -0.024115938821796332,
            -0.39292982742245197
          ],
          [
            -0.3010319763542772,
            0.10480918165645055,
            0.22005639343607475,
            0.2715114897442566,
            -0.3780551682459869
          ],
          [
            0.030747158265832124,
            0.0018167716581774119,
            0.0031228775597635307,
            0.31754883180300064,
            -0.16145100689097305
          ],
          [
            -0.35837213722507616,
            0.571117011636596,
            -0.007847237873432436,
            0.42498295600108965,
            -0.4347974786231091
          ],
          [
            -0.2937057552945706,
            0.599093455073234,
            -0.2649184303334948,
            0.21678510545468674,
            -0.4013538422370578
          ],
          [
            -0.32076136669613287,
            0.3506614420180841,
            -0.3129022824190883,
            0.17810073193865078,
            -0.2000897977720378
          ],
          [
            -0.16037867452980606,
            0.28436667174342656,
            -0.17074599821553837,
            0.06837792180613937,
            -0.08994542893595635
          ],
          [
            -0.050662372014629246,
            0.050763648067887544,
            -0.0009091392915479048,
            -0.020544757325741445,
            0.002081404547194893
          ],
          [
            0.23564446211896525,
            0.1642992288019639,
            0.16113178682140816,
            -0.15087993162126512,
            0.05903676739105602
          ],
          [
            0.26219097647648043,
            0.04361413924933101,
            0.20954074276682252,
            -0.046313868374442624,
            0.1985873869219885
          ],
          [
            0.29098175366158013,
            0.2277865560335223,
            0.20277185575174403,
            -0.3749089188136417,
            -0.027883492509634192
          ],
          [
            0.24059453852245344,
            0.10375033925084226,
            0.17508526304737235,
            -0.566181717094332,
            0.07641768422535195
          ],
          [
            0.0747719248690028,
            -0.2233941578794505,
            0.3636893677185419,
            -0.19517920452002593,
            -0.1816453851990794
          ],
          [
            0.10599461281321726,
            -0.2824574223936834,
            -0.10737052131005562,
            0.18793887992347802,
            -0.08933172619415294
          ],
          [
            0.2686722550774237,
            -0.2555121938648882,
            0.1342832673827098,
            0.18973820150861917,
            -0.039507681096774154
          ],
          [
            0.5933821100697492,
            -0.1707260601660112,
            -0.07150382797200742,
            0.3090957482603596,
            0.2987082210555008
          ],
          [
            0.008387146656839256,
            -0.046975953825623126,
            0.04543727221572723,
            0.08112955208710676,
            0.09042048748931404
          ],
          [
            -0.41275946038264805,
            0.08044464151982543,
            0.16773647520673896,
            0.22555242072378262,
            -0.16048034577986425
          ],
          [
            -0.31413475133966634,
            0.1409340140404177,
            0.13118625463802747,
            0.3030873737295748,
            -0.19860925875636634
          ],
          [
            -0.23157384009250498,
            0.07935360106911278,
            0.15398304646854324,
            0.28782020710357537,
            -0.18012254265179045
          ],
          [
            -0.13512879758461782,
            0.2699044784194736,
            -0.042161845546401094,
            0.13255504462253678,
            -0.23797980094180013
          ],
          [
            -0.003916726629831469,
            0.11458632664502201,
            0.06904801120161273,
            -0.2040252218859032,
            -0.2175846920351944
          ],
          [
            0.1908869039617366,
            0.15639281690635395,
            0.2142978504246831,
            -0.34255556355479166,
            -0.22121288934811395
          ],
          [
            0.36774388900571375,
            0.40641596118746454,
            0.2840596414376855,
            -0.6117023863565291,
            -0.5095342090935889
          ],
          [
            0.3352949655431245,
            0.5660742686718554,
            -0.35241267561468137,
            -0.2604235699071108,
            0.02029852220771814
          ],
          [
            0.4647973506694842,
            0.3030346495694559,
            -0.5753159428443753,
            -0.0660891684176128,
            0.20527165459884616
          ],
          [
            0.40068069953391394,
            -0.1115226836671534,
            -0.10886891162385956,
            -0.012321282461673857,
            0.42414448382410175
          ],
          [
            0.4464178532207778,
            -0.4842608281585594,
            -0.0388841706376763,
            0.14185028263483745,
            0.12804006210023877
          ],
          [
            0.038852303598020145,
            -0.14934059782215447,
            0.03366362671698044,
            0.28237512960431466,
            0.0876572080596028
          ],
          [
            -0.35782933100988545,
            -0.06907106098277856,
            0.12989808063293715,
            0.32187407597355966,
            -0.17268228656258422
          ],
          [
            -0.3002975380831201,
            0.13358961351943408,
            0.019667470955853108,
            0.22749443971088676,
            -0.1715399544547734
          ],
          [
            -0.006133178782754717,
            0.013762934302175157,
            -0.004120308372207274,
            0.2509039339671527,
            -0.30156715942159723
          ],
          [
            0.07951515720182219,
            -0.07314276137116241,
            0.13211734485655474,
            0.028749949899576348,
            0.10356260438799575
          ],
          [
            -0.14084600165718056,
            0.08248673554152369,
            0.15019307692084582,
            -0.20165018514464395,
            0.20766454145773708
          ],
          [
            -0.09098630334538732,
            -0.10231102838141624,
            0.22128191428045374,
            -0.2782168500386915,
            0.012094306932748515
          ],
          [
            0.025066398900697315,
            0.22081368560852,
            0.43920818473928525,
            -0.37208730162598336,
            -0.43949210230345503
          ],
          [
            0.23011441051197795,
            0.5131547037709473,
            -0.02336888830005276,
            -0.08349600692285745,
            -0.5236327027725919
          ],
          [
            0.003189529811930967,
            0.5835941341053436,
            -0.21051321674483398,
            0.051713149978264254,
            -0.2989043385466446
          ],
          [
            0.03211121387350824,
            0.3256446537137942,
            -0.3450191909776188,
            -0.07522909175654527,
            -0.09627155537699374
          ],
          [
            -0.2451892620550461,
            0.11787246863755452,
            0.020732787083571444,
            -0.028742987802155937,
            -0.25489685547496377
          ],
          [
            -0.3374200568166016,
            0.06095952600938371,
            -0.09405746378161375,
            0.06873583489479293,
            -0.2396390745295591
          ],
          [
            0.10456451948711096,
            0.008307427763501091,
            0.0432355624288389,
            0.12537331800968657,
            0.000827246557844753
          ],
          [
            -0.06079648313715081,
            0.07319402540927389,
            0.18523397832935626,
            0.3308486245813433,
            -0.31791232473821945
          ],
          [
            0.08581784776913381,
            0.10296097412506189,
            0.17243356696415468,
            0.21700928564511152,
            -0.2504574177222169
          ],
          [
            0.08622061243633436,
            0.13856034878493095,
            -0.012555929328577721,
            0.11224506031049464,
            -0.23423803031448837
          ],
          [
            -0.08789848552729744,
            0.03823714260451809,
            0.15792504031510007,
            -0.22642772858674282,
            0.12146519570009127
          ],
          [
            -0.7756803243856554,
            0.005140951802227245,
            0.6639566021340128,
            0.3740122713393178,
            -0.39741791390381387
          ],
          [
            -1.2044021651128611,
            0.5558788855143865,
            0.45167472734788255,
            0.4754060166981759,
            -0.2470893581379541
          ],
          [
            -0.4186305911978603,
            -0.33940650144659956,
            0.6692499899062236,
            0.5121017082197665,
            -0.445640941526751
          ],
          [
            -0.771324956041624,
            -0.058966752894274325,
            0.8253814277412052,
            0.6772904054213607,
            -0.2587484128238469
          ],
          [
            -0.24790409684251435,
            0.027060113845322198,
            0.29051309419288857,
            -0.10175947084651046,
            -0.04499565541378882
          ],
          [
            -0.07255938043723575,
            0.01631556570647901,
            0.10993613026721856,
            -0.14487640629637516,
            -0.1379837330597795
          ],
          [
            -0.07363393696153261,
            0.11347071245231315,
            0.09940423966938676,
            0.40999330535415757,
            -0.34476091013129184
          ],
          [
            0.1654940618980375,
            0.12088441514937392,
            -0.06589517200780391,
            0.3097638592911043,
            -0.11840721316329801
          ],
          [
            0.2204403065171678,
            -0.04560447039200188,
            -0.04447929124013189,
            0.040711345096920315,
            -0.06355990409565229
          ],
          [
            -0.09164211968317952,
            0.047632622490872675,
            -0.0036749897807767415,
            0.07509582035776828,
            -0.019186112322010104
          ],
          [
            -0.09831562056804029,
            0.10467516163207001,
            -0.13814332198811632,
            -0.0012273343651062539,
            0.1131345654446449
          ],
          [
            -0.02819228709808488,
            0.30288856389563884,
            -0.13789340325380825,
            -0.07966544655727835,
            0.003334653283582923
          ],
          [
            0.23815106886994813,
            0.5619011870893292,
            -0.4841431179057115,
            -0.05489228991114075,
            -0.1234081822825984
          ],
          [
            0.21692291349494178,
            0.32345562766183084,
            -0.13131687596574204,
            -0.11497380561261875,
            -0.18582537782383096
          ],
          [
            -0.052494119859248296,
            0.29099382228534626,
            -0.063990969857661,
            -0.0017347344817922091,
            -0.13221234992326217
          ],
          [
            0.00940640892743149,
            -0.3474303476478731,
            0.5469259017946615,
            -0.016630250233918085,
            -0.2869643878670288
          ],
          [
            -0.005651367895641044,
            0.060328697799603224,
            0.259558228127272,
            -0.07170105934715335,
            -0.26674773190554313
          ],
          [
            0.1121920229534066,
            0.02418899434575321,
            0.06534350752642135,
            -0.1591436471789154,
            -0.048004745883141985
          ],
          [
            -0.052193449446440644,
            -0.005441135257732212,
            -0.075445239628764,
            0.0517239914626221,
            -0.06454327522152922
          ],
          [
            -0.18925340105792124,
            0.16035803833351422,
            0.06548484135752533,
            0.17969476788428768,
            -0.00107083466430837
          ],
          [
            0.03025844633041367,
            -0.11439551190741122,
            0.11645309482973473,
            0.32899579745730095,
            -0.23952494052521994
          ],
          [
            0.020583859633074582,
            -0.281696565451446,
            0.12483809222768105,
            0.06577397090942073,
            -0.05864069172595785
          ],
          [
            0.12208040825064355,
            -0.09289928066768342,
            -0.1030921409160008,
            0.2020984470045008,
            -0.057986107458549214
          ],
          [
            0.4498438987119979,
            -0.02260385906132418,
            -0.13815711756675414,
            0.04220504721727582,
            0.011146695254939911
          ],
          [
            0.4110136560810918,
            -0.10288518540851489,
            0.07868650881009114,
            -0.0197794401480915,
            0.19631926804572775
          ],
          [
            0.37783523254507795,
            0.1447077007137714,
            -0.009911651405474634,
            -0.29325725170406813,
            -0.1605510529625268
          ],
          [
            0.3143474268254597,
            0.4522665101940389,
            -0.45106683336761166,
            -0.397265884769292,
            -0.2546562553979128
          ],
          [
            0.3415923650278778,
            0.2942103483883993,
            -0.3956281317834008,
            -0.18802462074724072,
            -0.07673720219408682
          ],
          [
            0.08385191207395712,
            0.33538589584866857,
            0.007173063682742645,
            -0.20882073555791272,
            -0.18824281899603668
          ],
          [
            0.09815974158146819,
            0.33607451509707065,
            0.03339080900243484,
            -0.03126544047723854,
            -0.1684668013406518
          ],
          [
            -0.22133006038182168,
            0.14159542954577967,
            -0.02074735782267604,
            -0.037698307311906994,
            -0.15802274532470256
          ],
          [
            -0.13606150717631463,
            0.059637640525306575,
            0.06484748833354635,
            0.14622918442814348,
            -0.05254926078978548
          ],
          [
            -0.35352090326971874,
            0.17917569723044646,
            0.05777653342707844,
            0.20473548365045952,
            -0.09569577440411516
          ],
          [
            -0.26155227079628646,
            0.06659498795395202,
            -0.08416299520273932,
            0.15957484060794638,
            0.07510348953485557
          ],
          [
            0.21076749929885377,
            -0.1179065976315253,
            -0.1879973731568812,
            0.2672808584200004,
            -0.008581381676487624
          ],
          [
            0.04431308072404038,
            -0.02945054143860087,
            -0.1428373865504597,
            0.27305301011737176,
            0.058107635515893374
          ],
          [
            -0.11038058121935065,
            -0.27475394444226414,
            0.3990156706061649,
            0.19601827197656257,
            0.20287909037215304
          ],
          [
            0.1859181958306355,
            -0.026207551021822515,
            0.3042085692735082,
            -0.05681006386185777,
            -0.1633379465496181
          ],
          [
            0.21878732777152346,
            -0.1203349207765948,
            0.20046282240326205,
            -0.3182371125630366,
            0.3049139169829814
          ],
          [
            0.17007570397207555,
            0.18196476764446384,
            0.0624927539194224,
            -0.12936292077915787,
            -0.008687210542207476
          ],
          [
            0.17865212898121352,
            0.061024381513251395,
            0.13896566642442043,
            -0.03138672008670158,
            -0.04937294942656383
          ],
          [
            0.3198445265247911,
            0.06837051870847331,
            0.024534032071258885,
            -0.12586634949690537,
            -0.0085681562969354
          ],
          [
            -0.09997146320385608,
            0.12169065060944088,
            0.09187926649698289,
            0.03241594554971418,
            -0.1768586250022199
          ],
          [
            -0.43261113107285387,
            0.17411125795810464,
            -0.01545036680793298,
            -0.08980222867191961,
            0.024657225903638086
          ],
          [
            -0.22602436923393845,
            -0.004720343132880667,
            0.0029053836332165344,
            0.1317318691805873,
            -0.036198809082813074
          ],
          [
            -0.20273468447615875,
            0.2930168184623503,
            -0.14635707940689663,
            0.30397258520373166,
            -0.3168807523159306
          ],
          [
            0.03284700666575722,
            0.5064064776947012,
            -0.4484390641850213,
            0.34723213955288385,
            -0.19976591290004864
          ],
          [
            0.14058194346099545,
            0.3855773360614942,
            -0.4860504847428214,
            0.2708510999458222,
            -0.04958659872046181
          ],
          [
            -0.05817349643953021,
            0.15757387045780363,
            0.3097137789276608,
            0.11623605909869665,
            -0.5435077034966754
          ],
          [
            0.26598235810801685,
            -0.1924056760935959,
            0.5665632520617591,
            0.0349507961698381,
            -0.240079398783968
          ],
          [
            0.045334172331168446,
            0.17614377313499294,
            0.1469761960831606,
            0.0778749513984399,
            -0.3644222592439764
          ],
          [
            -0.010697134709614052,
            0.06878307730168844,
            0.33377561184414306,
            -0.04710114872652417,
            -0.08276582765980649
          ],
          [
            0.05408287813184832,
            0.16345334491195954,
            0.05117845315608509,
            -0.19249092773547968,
            0.04407674617923738
          ],
          [
            0.14907616500270585,
            0.019123630047861977,
            0.022866890521251293,
            -0.11359463375860213,
            -0.05309836591643833
          ],
          [
            0.07618889970777218,
            -0.0171883530566614,
            0.10194951963112771,
            -0.03917038736405181,
            -0.03585434567660316
          ],
          [
            -0.005462265978043657,
            -0.1573768739948399,
            0.06063832928428523,
            -0.04028911037397328,
            0.04149986351264048
          ],
          [
            -0.06538021464329849,
            0.013164645504683777,
            0.006054283627401099,
            0.11307085420691818,
            -0.12725592022275684
          ],
          [
            0.23142174070262705,
            0.19311935770054608,
            -0.06595494182775452,
            -0.05689839286878406,
            0.13313710189106975
          ],
          [
            -0.0028748338189573653,
            0.24170212964271567,
            -0.3323041673845173,
            0.25471124414251073,
            -0.20890935786710182
          ],
          [
            -0.12007683951127994,
            0.21019005378256392,
            -0.1929574282330636,
            0.24504310943522173,
            -0.02033507183661439
          ],
          [
            0.2630768865429899,
            0.31990655561744724,
            -0.4940431096369445,
            -0.1247575979829194,
            -0.022319886038985402
          ],
          [
            0.574106963066044,
            0.17368909700310456,
            0.011584549956011787,
            -0.3340638478326541,
            -0.18721954026635348
          ],
          [
            0.030461152756497852,
            0.16710213569792784,
            0.11952515694390933,
            -0.21758369362610472,
            0.002831266170370901
          ],
          [
            0.3552652732905225,
            0.1898084091958376,
            0.018882914408531036,
            -0.1955718482465815,
            -0.17661539859602132
          ],
          [
            0.3604721527411702,
            0.24764318484213374,
            0.09016415870535659,
            -0.27308191360646333,
            -0.07879309513131964
          ],
          [
            0.3383613472051467,
            0.2633912187103934,
            0.20291591587448415,
            -0.10895192447316622,
            -0.08205355278334053
          ],
          [
            0.14984287353778955,
            0.24136594260313898,
            0.2030589177163933,
            0.03972737143778113,
            -0.14465357607777565
          ],
          [
            0.014882030892629674,
            0.19870831959256746,
            0.06433168438232834,
            -0.1073245217709094,
            -0.13840427932955776
          ],
          [
            0.39140788982900654,
            0.08462502385129386,
            -0.21736191017150455,
            0.25678297911091735,
            -0.25328590021667985
          ],
          [
            0.3384165696222045,
            -0.04325702760064198,
            -0.36922460764246157,
            0.16140349251012082,
            -0.07166977643564128
          ],
          [
            0.7521393743086475,
            -0.6547387712324509,
            -0.10170489538342434,
            0.5152545031171119,
            0.17563882878823345
          ],
          [
            0.62492022806454,
            -0.6324034728917065,
            0.2010814831304391,
            0.007544730825428978,
            0.04292986870598998
          ],
          [
            0.10568067260036329,
            0.09049685349477865,
            0.18564691334518219,
            -0.18706254765780575,
            0.2545768600850435
          ],
          [
            -0.17193033972548755,
            0.10772377810554702,
            0.07013265827270161,
            -0.2322332853979667,
            0.4779208430592208
          ],
          [
            -0.5768778718885038,
            -0.14959070082295656,
            -0.05386019598324275,
            0.07131159212718645,
            0.9450926837772994
          ],
          [
            0.045109091774907406,
            -0.16801355105182056,
            0.07331172913829706,
            -0.1794158425493857,
            0.7586417558051686
          ],
          [
            -0.01091230061874922,
            -0.19763600020593883,
            0.16616703862142732,
            0.21448030224929782,
            -0.23693277081099692
          ],
          [
            0.02982769505511858,
            0.004514062217932228,
            0.18901926356539817,
            -0.042817143980855704,
            -0.1758710335922915
          ],
          [
            0.18443610335772562,
            -0.13321433431220084,
            0.18861440679983738,
            -0.07634571747723116,
            0.17188692647189088
          ],
          [
            -0.2126333716947473,
            -0.2791560878823621,
            0.07074558657899384,
            -0.09266771926770953,
            0.26418623991503004
          ],
          [
            -0.05765272357679102,
            -0.24782228830275316,
            0.31996853952000004,
            0.004024431722201111,
            0.07293572637081454
          ],
          [
            -0.1841579404226737,
            0.046673989626624446,
            0.10371817441345141,
            0.18738271468913073,
            -0.0939907632166878
          ],
          [
            0.004093524617757914,
            0.17316687355728302,
            -0.15002051623623175,
            -0.1870341728925593,
            0.2724799679095337
          ],
          [
            0.15146758805126903,
            0.3955907407944136,
            -0.3400898254429388,
            -0.19517200118249056,
            0.09220594946631909
          ],
          [
            0.1763182124180952,
            0.10731671309870486,
            -0.016892473375473747,
            -0.29769282358907306,
            0.236375831521648
          ],
          [
            -0.11622851438209614,
            0.037326920123643664,
            0.08393584550582703,
            -0.15840717605404087,
            0.06970172942791777
          ],
          [
            -0.17439848999737076,
            0.1388977853366093,
            -0.1974467032674469,
            0.014156892341649581,
            0.36065212946176084
          ],
          [
            -0.05049949941114002,
            -0.12446110536475423,
            0.14953020688581664,
            -0.08445771942868358,
            0.3277568211596591
          ],
          [
            0.23659245688184288,
            0.14737896482803753,
            0.04488288958390677,
            -0.2952115831623477,
            -0.10121644676878572
          ],
          [
            0.15914075440898673,
            0.015452889638735718,
            0.14125792919798616,
            -0.15770206441568296,
            0.07196796624756224
          ],
          [
            0.004216702696965477,
            0.05101138392727288,
            0.05375250004769325,
            -0.03323658471377636,
            -0.1379740076980227
          ],
          [
            -0.01902920108432506,
            0.11232894766634516,
            0.11652400977459579,
            0.13231642592257226,
            -0.09530949288416615
          ],
          [
            -0.017960176329942495,
            0.03955387787174762,
            0.081256461550442,
            0.04240340103218023,
            -0.08958360909902909
          ],
          [
            0.028186621193368924,
            0.3334250911733027,
            0.0900437942989636,
            0.16022690199727,
            -0.22132196422388933
          ],
          [
            0.23843576780207806,
            0.10706626425131141,
            -0.07446163571081699,
            -0.29929413473069516,
            0.14911913748906447
          ],
          [
            0.2772613535569063,
            0.21086341529044805,
            0.061579554060791034,
            -0.22218152140607553,
            -0.23979689607390675
          ],
          [
            -0.05136953837150778,
            0.009217410222543456,
            -0.06134928654448745,
            0.008824459014356717,
            -0.08445591670864917
          ],
          [
            -0.02885574293416063,
            -0.3862590888475139,
            0.12317385553971096,
            0.08075822693859616,
            0.13913301419076113
          ],
          [
            0.07207991170126478,
            0.010117839432959906,
            -0.0056200190154416544,
            -0.007907704653360279,
            0.0661754119476344
          ],
          [
            -0.023781214819998356,
            -0.10978009236320586,
            -0.07780073950883978,
            -0.07982046311344705,
            -0.1544279726966644
          ],
          [
            -0.15970301829427347,
            0.06690109197087721,
            0.14009087280715202,
            -0.12041179712715712,
            -0.22939871808066692
          ],
          [
            -0.09974749330715646,
            -0.16953123562327185,
            0.11003297840165599,
            -0.12802209917520435,
            0.011158721863919249
          ],
          [
            0.13915690745498238,
            -0.13202003883151642,
            -0.09412773734790601,
            -0.09690408929436815,
            0.028893213517628445
          ],
          [
            -0.0842472903334454,
            0.07751545382010876,
            -0.01023342324070401,
            -0.12904891323289283,
            -0.08542580367615932
          ],
          [
            0.11169575511860093,
            0.5142306827434119,
            -0.4054205961604191,
            0.006856184545403876,
            -0.27963653151849405
          ],
          [
            0.0509788144414386,
            0.22352036182792062,
            -0.036864833909272365,
            -0.2540396844274534,
            -0.20709796953958842
          ],
          [
            0.24620644742817324,
            -0.20634681537704286,
            0.22481799298184693,
            -0.147886144922408,
            0.1895583820557728
          ],
          [
            0.08835681301714789,
            -0.5946058764439965,
            0.39674239451618515,
            0.04500405462985411,
            0.46516056055771354
          ],
          [
            0.12584809567615898,
            -0.2701106175109965,
            0.23373869485855842,
            0.0065522337869452114,
            0.41772201551577054
          ],
          [
            0.1267080132178073,
            -0.08861739751444868,
            0.12515481529997943,
            -0.09530577904559037,
            0.3203414089459208
          ],
          [
            0.029868479283245705,
            -0.34595600750305194,
            0.285080680561566,
            -0.11877794184123412,
            0.6032026309603401
          ],
          [
            -0.29273480045043193,
            -0.18175486926811485,
            0.1349783087813039,
            -0.19775267863597498,
            0.4310569929743395
          ],
          [
            0.22431189741360708,
            0.012636419323040474,
            0.1458195016716414,
            -0.21959002528368135,
            -0.05986665600922159
          ],
          [
            0.10344422646409572,
            0.2060294797986036,
            -0.0414173148261644,
            0.0179624083048353,
            -0.15767982204612788
          ],
          [
            -0.07661775783223587,
            0.2561616936738693,
            0.09925855095960819,
            0.1606016789560711,
            -0.12804945696578163
          ],
          [
            0.47189437567182024,
            0.16903895153597764,
            -0.018134335551231826,
            -0.10050534665726885,
            -0.0192345249140121
          ],
          [
            0.06844859711928646,
            0.1950415024788407,
            0.13532237545956655,
            -0.14994321759054532,
            -0.05247813739529878
          ],
          [
            -0.03955605494024167,
            0.20149541873323756,
            0.028741250944593923,
            -0.03916770016262807,
            -0.03707712723113406
          ],
          [
            0.060561700573123364,
            -0.030438577059931318,
            0.0880856228818758,
            -0.0842702208509917,
            0.1283586086108757
          ],
          [
            0.0013213096554256024,
            0.12272611493775287,
            -0.10238866428275537,
            -0.08330652106409744,
            0.3124498804745052
          ],
          [
            -0.04638390224961109,
            -0.004999456471593332,
            -0.15763469912186817,
            0.14153401714133748,
            -0.1713545799416565
          ],
          [
            0.04833650582810345,
            0.062086373377202304,
            0.08859336674682132,
            -0.061127983935996055,
            -0.0824692554184574
          ],
          [
            0.14903954178469556,
            0.1271546484498551,
            -0.11211478451297074,
            0.02785196021913944,
            -0.14562716415837704
          ],
          [
            -0.13351603879369442,
            0.2594723259799874,
            0.05787242931596535,
            0.17664141965735844,
            -0.27943568358994053
          ],
          [
            0.16775120613349728,
            0.14749756225114857,
            -0.13967758494423052,
            -0.12280257659019235,
            -0.04110868915342645
          ],
          [
            0.25479402221706554,
            0.29011763617011993,
            -0.12614721509398308,
            -0.14285297816574102,
            -0.18891330867466705
          ],
          [
            0.24910221674251629,
            0.13093813180554872,
            -0.1134110216802074,
            -0.15605814408459315,
            -0.04365206220427242
          ],
          [
            0.12215381712723,
            0.07884828765882884,
            0.06868562973500007,
            -0.10834528004549336,
            -0.11870841078904075
          ],
          [
            0.0218224019822411,
            0.004488637016354498,
            0.07947191320831044,
            -0.14745324056383316,
            -0.20890855992375043
          ],
          [
            0.17490502483307127,
            -0.29387959711561534,
            0.481082639193194,
            -0.3416917369815364,
            0.08683903473689716
          ],
          [
            0.32895393981402604,
            0.02331774495176464,
            0.1296813513715995,
            -0.3732520033745143,
            0.07069321350543298
          ],
          [
            0.08760058466630545,
            0.07023520765557356,
            0.13419235548945016,
            -0.19684400917435674,
            -0.08913570724140478
          ],
          [
            0.05372307778592487,
            -0.09058463538692003,
            0.23507526672778262,
            0.10802823431371124,
            0.2024541490069922
          ],
          [
            -0.21344505681556936,
            -0.09530416125125891,
            0.32784549249970946,
            0.17550759720536024,
            0.10607772015926908
          ],
          [
            -0.08272309028462402,
            0.03265350742074181,
            0.04943378103803291,
            0.0013177017665138367,
            -0.04453333450731289
          ],
          [
            -0.49646941926752064,
            0.10331240149337442,
            0.12183242758801682,
            0.12247004422627812,
            -0.017934368782507752
          ],
          [
            -0.3344306719064152,
            0.18884990041441718,
            0.04269105066297925,
            0.040275988049694095,
            -0.1537248007334683
          ],
          [
            -0.3360715291265664,
            0.04753539622899087,
            0.257045686859372,
            0.1606137330103972,
            -0.35784498436303724
          ],
          [
            0.3962108781614473,
            -0.22228618622285817,
            0.3603554518347599,
            -0.2244954532256647,
            -0.01596238560240347
          ],
          [
            0.3086224865088743,
            -0.45906970264023855,
            0.3854993248670484,
            -0.028773841679044284,
            0.02517537386099241
          ],
          [
            0.27273212989506124,
            -0.30483650918399463,
            0.2894945667939685,
            -0.0448551029654712,
            0.05986926263404257
          ],
          [
            0.1386985848040071,
            -0.05388252596046613,
            -0.3029289936619326,
            -0.0316160427106142,
            0.15769500093354097
          ],
          [
            0.07449640190407657,
            -0.08015561729432578,
            -0.030985972655636317,
            0.10073867569670698,
            0.07948684406869631
          ],
          [
            0.07146151460658097,
            0.2563369244314204,
            -0.1995506151850566,
            -0.07024918675452514,
            0.23842057048730075
          ],
          [
            0.007406836102732811,
            -0.07151191370439627,
            -0.03202421111324112,
            0.024206365259241934,
            0.1328216710984613
          ],
          [
            -0.055839335728844613,
            0.19399807600546912,
            0.2520282361275418,
            -0.04038111029982175,
            0.08151116207524121
          ],
          [
            -0.08723946829619324,
            0.08328419396105224,
            -0.1962971523224943,
            0.0692771889318162,
            0.03205272979268085
          ],
          [
            -0.09880536724095543,
            -0.06543229054572729,
            0.04789962295267794,
            0.10927851030466877,
            -0.02790414844740287
          ],
          [
            -0.02963475535550696,
            0.11285591534437468,
            0.16807607749375703,
            -0.2489143176846068,
            0.04905805931833463
          ],
          [
            0.11509784535789946,
            0.07294607310931614,
            -0.027847038890752525,
            -0.22481067379664224,
            -0.1475785697309376
          ],
          [
            0.14053600963227225,
            0.050019859544520526,
            -0.0055438722105683015,
            -0.42345598647044064,
            0.09985587687637082
          ],
          [
            0.14648227988821358,
            0.12807123946346363,
            0.15631976926062063,
            0.17488027133022419,
            0.03570797626055372
          ],
          [
            0.01396125520241439,
            0.04258881352345087,
            -0.031596326559788925,
            -0.12128371672059139,
            0.3170835308202063
          ],
          [
            0.21403311808749786,
            0.02760228370990088,
            0.14579065842242112,
            -0.13266082927458336,
            0.021392617764623038
          ],
          [
            0.15076993975079872,
            0.23117931143439963,
            0.10808451648322706,
            -0.17458457379819894,
            -0.04769434495955021
          ],
          [
            0.03539255339848024,
            0.0922411205149238,
            0.07914320188371454,
            -0.08896607368092203,
            -0.12569536858630348
          ],
          [
            -0.15205912707726266,
            -0.010966930665592083,
            0.14230647669674232,
            -0.0076291248594770825,
            -0.24652182339077275
          ],
          [
            0.06522492622532067,
            0.10771198229471646,
            0.02990239627738494,
            -0.3275350393326796,
            -0.13118143775604293
          ],
          [
            -0.05935968862103581,
            -0.029039050097456682,
            0.2616806755471931,
            0.05270304491375214,
            -0.29254101902235635
          ],
          [
            0.4403904337001303,
            -0.3603226501484574,
            0.18719365195139645,
            -0.2934134672628426,
            0.10563740990154079
          ],
          [
            0.17930700859343188,
            0.019769965608692736,
            0.23238948601723913,
            -0.0764253684387688,
            -0.004717835621183524
          ],
          [
            0.1047635813116358,
            -0.09863841717655732,
            -0.053343852533627396,
            0.05684249166686231,
            0.0848573128158
          ],
          [
            0.2516305592902996,
            -0.18197628838152305,
            -0.10826330177327467,
            -0.014666056527959563,
            0.060821918847483905
          ],
          [
            0.09849445301381048,
            -0.0696655729797378,
            0.12112157487746725,
            0.09371202816984966,
            -0.16874913207981318
          ],
          [
            0.08965306652270862,
            0.05745644867423036,
            -0.03578197247504093,
            0.0196506904983166,
            -0.07065008179840368
          ],
          [
            -0.1477950718661261,
            -0.11931653091530461,
            0.20699677053720328,
            -0.006192060613972863,
            -0.23705006381522295
          ],
          [
            -0.2483531454455777,
            -0.03568745492982867,
            0.2709784571260466,
            0.11996889242764498,
            -0.23731141524548005
          ],
          [
            -0.057870747464435726,
            -0.005042450831824304,
            -0.10130323056487449,
            0.1303783491713639,
            0.0061686644733433766
          ],
          [
            -0.0011548662052879462,
            -0.12180802851326734,
            0.13825207097262132,
            -0.17170903246761834,
            0.012464994655547087
          ],
          [
            0.3362157757467403,
            -0.2612791328483098,
            0.11854826954216106,
            -0.4016063510351912,
            -0.19399273512541337
          ],
          [
            0.22369856851513187,
            -0.2110497828097261,
            0.34402847357595845,
            -0.1705036431999893,
            -0.031435894104194034
          ],
          [
            0.15725376933142438,
            -0.1361665228687789,
            0.35097350038197866,
            0.0018429767586479388,
            -0.07076706100759876
          ],
          [
            0.055433205292770606,
            0.013481547467785937,
            0.09655088025085463,
            -0.03178201150624817,
            0.2338666167384747
          ],
          [
            -0.03887819218339272,
            0.08113338386505708,
            0.027213771732820892,
            -0.009525236230126504,
            0.3410218818455937
          ],
          [
            -0.037328562419357135,
            0.1375989514763351,
            -0.0021535365217496836,
            0.09284475889229035,
            0.2435678650009657
          ],
          [
            0.08405712293425488,
            -0.07035761047336052,
            0.033951581013981956,
            -0.07659235453253689,
            0.21816922001987288
          ],
          [
            -0.07358302870146943,
            0.023561274642481263,
            -0.036663439084929896,
            -0.018418285115891664,
            0.3657764964301202
          ],
          [
            -0.18156934640150155,
            -0.17261079678317212,
            0.0684166400334685,
            0.07679869859093862,
            0.3695201917104493
          ],
          [
            0.037030759754574503,
            0.19150631975745933,
            -0.08387453475125088,
            -0.1730055823013403,
            0.3361454456928145
          ],
          [
            0.11955764391050502,
            -0.03524567775251951,
            -0.1115383741298482,
            -0.13875726678971473,
            0.24912284058101125
          ],
          [
            0.04219041133099477,
            0.12728737188164757,
            -0.033579022312443245,
            -0.08156931386908875,
            -0.21110117513131546
          ],
          [
            -0.04294881236861922,
            0.37825624929660456,
            0.03852795962428257,
            0.04972260802629837,
            -0.1436713414153103
          ],
          [
            -0.026335079343649564,
            0.3969091431451628,
            -0.2622676844536809,
            -0.018505674266364545,
            -0.02377191603618445
          ],
          [
            0.041706814271315194,
            0.059621722663526965,
            -0.19719614991498635,
            -0.07679306710635117,
            -0.1685611950371845
          ],
          [
            0.03324147994096476,
            0.24733484573674366,
            -0.06313662436495367,
            0.02517571493870932,
            -0.13910681322589313
          ],
          [
            -0.13729247148496154,
            0.12578445631658056,
            -0.03780538906393353,
            -0.018787065559178463,
            0.02103835318604353
          ],
          [
            -0.010696424097603385,
            0.198180774428425,
            -0.08357202094498618,
            -0.2050714982080829,
            -0.06779805781685429
          ],
          [
            -0.14820445217483091,
            0.11498634423388372,
            -0.0024618881738299814,
            -0.05470983953909704,
            -0.13984446723754188
          ],
          [
            -0.2871788145553344,
            0.3190243814683814,
            -0.16548999789398233,
            0.00011540330704339924,
            -0.2459240980297436
          ],
          [
            -0.4037730023851308,
            0.14691964458450124,
            0.12614855215098908,
            -0.1607345690140652,
            -0.0006327994288924407
          ],
          [
            -0.06744065849735977,
            -0.11799699801906179,
            0.3070387461205631,
            -0.19370782491419417,
            0.034967406065881675
          ],
          [
            0.09857812835800468,
            0.020066451011568585,
            0.29406196547123764,
            -0.05650909578441924,
            0.04736394945083225
          ],
          [
            0.3343984689385873,
            -0.22317446540771194,
            0.16780561745610814,
            -0.12422395672620644,
            -0.0021255882089938147
          ],
          [
            0.11437862091733884,
            0.047307512972962956,
            0.14684403711534347,
            -0.2314027927539764,
            0.08709140539382931
          ],
          [
            0.1541768826217293,
            -0.0027412960156211765,
            0.13038447794439864,
            -0.09372886149284156,
            0.13330783288873896
          ],
          [
            0.20012592722521325,
            -0.10635040120246436,
            -0.03962633774582338,
            0.11751921253991511,
            -0.042294210588318636
          ],
          [
            0.08044628148741483,
            0.03482710004337383,
            -0.06585947475198145,
            -0.2704240985087908,
            -0.056348726140078194
          ],
          [
            -0.07951322481367226,
            -0.15543995397347704,
            0.023665971532230302,
            -0.0608051166784568,
            0.2694583073409848
          ],
          [
            -0.07499003372633305,
            -0.03090072313015731,
            0.19782051114991672,
            0.02576184238666886,
            0.15179957390757468
          ],
          [
            0.011811967734900028,
            -0.05144453091791199,
            0.08247579934319496,
            -0.10676594374789579,
            0.436096944237694
          ],
          [
            0.3407807328074749,
            0.05733667410840317,
            -0.12293669582147139,
            -0.11920559781281372,
            0.10287007149672751
          ],
          [
            0.3577133646572726,
            -0.235940206314725,
            0.2626583225738298,
            -0.2728752145944349,
            0.16387695624482101
          ],
          [
            0.3427418369142949,
            -0.3086335157584904,
            0.29220783669370787,
            -0.15929209960696472,
            -0.1833953002170053
          ],
          [
            0.04303781837407335,
            -0.08013356570080013,
            0.11308051242690643,
            -0.05466486221971228,
            -0.3497416982574048
          ],
          [
            0.3052428174320856,
            0.009860330467943287,
            -0.15444062530475017,
            -0.09236640785245889,
            -0.07811269915017477
          ],
          [
            -0.21127623864974093,
            0.2315226014338255,
            0.2414752823878642,
            -0.11861253111957759,
            0.1314297799206204
          ],
          [
            -0.34796168280698614,
            0.22939455782843796,
            -0.05859859855991417,
            0.0033956770842451375,
            -0.0010122761185760493
          ],
          [
            -0.20773522851645765,
            -0.018333988590504207,
            0.06519976531431625,
            -0.06048107262931421,
            0.04573241611293934
          ],
          [
            -0.0427701549472092,
            -0.006148942553723907,
            0.14576714933327245,
            -0.06446307062702755,
            -0.017552412888422554
          ],
          [
            -0.08007150325107809,
            0.1711135777955656,
            -0.14476775825299773,
            -0.2514510603612368,
            0.14978471062217158
          ],
          [
            0.19237289990798162,
            0.003303670841238681,
            0.059845216109517436,
            0.03581800384345149,
            0.25220584486367836
          ],
          [
            0.049171474199650206,
            0.10763644427584959,
            -0.08827942400571562,
            -0.056791306828847914,
            0.0674089165644615
          ],
          [
            0.1437014431702177,
            0.12087849445866435,
            -0.012543371603081723,
            -0.0955712520688216,
            0.06387236753947323
          ],
          [
            -0.02160241100377673,
            0.1207966169720137,
            0.15575330910410332,
            -0.2513897331366967,
            0.23079150716276867
          ],
          [
            -0.24923597347961493,
            0.09479064674532836,
            0.14020488602224918,
            0.1036658468326057,
            -0.16951057043098622
          ],
          [
            0.06746955147931634,
            0.056654705383559316,
            0.1003769030579445,
            -0.0747587465750828,
            0.16464146102518434
          ],
          [
            -0.05665977762847573,
            -0.13523026688825995,
            -0.0443199749912136,
            0.0957320876840594,
            0.1141151091705847
          ],
          [
            0.044495572836432136,
            -0.0985800963562169,
            0.14526116839365133,
            0.004365674974466351,
            0.21797273413906865
          ],
          [
            -0.1457954041139379,
            0.0030046508057840677,
            0.031995528588683465,
            0.10050579869373225,
            0.06555302042959675
          ],
          [
            -0.2639381455567474,
            0.16873758748775297,
            0.19665114521726632,
            -0.06151137695853605,
            -0.27247032604427013
          ],
          [
            -0.21183257862973326,
            0.06256752468659817,
            0.15572524827960904,
            0.0388582254116756,
            -0.12046350045602996
          ],
          [
            0.10671621849102805,
            0.09519062501149377,
            0.022198137525010164,
            -0.037247513392180395,
            -0.20485169799650474
          ],
          [
            -0.10326575943452346,
            0.026740528329219013,
            -0.1356899406545979,
            0.2743384825528039,
            -0.09822560934174636
          ],
          [
            0.14420426630751618,
            -0.07854635771318796,
            8.109745769227021e-06,
            -0.04019706650456415,
            0.12377519078977117
          ],
          [
            0.29831961569987575,
            -0.21272538528227228,
            0.26353668663726826,
            -0.16058559981014256,
            0.14889657008189958
          ],
          [
            0.0847267871713853,
            -0.07707363577540476,
            0.36054924711735215,
            -0.12447928235826548,
            -0.22367456455760779
          ],
          [
            0.16581324520692953,
            -0.010437066301031377,
            0.15592164307321615,
            -0.1375885177616884,
            -0.17079262218777067
          ],
          [
            0.15019411608210126,
            0.15672100923618681,
            -0.42513580229794146,
            -4.883606469453308e-05,
            0.11711954507946862
          ],
          [
            0.10431343198405263,
            0.1259589267790382,
            -0.010058364329543887,
            -0.2544276233345898,
            0.058927950185482275
          ]
        ]
      },
      {
        "activation": 1,
        "biases": [
          -1.2040369909963333,
          -0.8008475678834425,
          -0.3960665110718816,
          -1.0355113751775515,
          -0.8896463776135772
        ],
        "cols": 5,
        "rows": 5,
        "weights": [
          [
            1.8272163186112473,
            -2.952152110264283,
            -5.7779964082885495,
            2.0000624399563227,
            1.7153888161433783
          ],
          [
            1.7857226278767933,
            -1.1848072433441565,
            0.8144865588546414,
            -6.04430604455594,
            1.2649641501916642
          ],
          [
            -5.464599943371327,
            0.11411086865705254,
            1.0048798006117299,
            1.2331328639279657,
            1.355213740711067
          ],
          [
            1.7205386622273948,
            -1.5933556999957201,
            1.7779313651159474,
            1.2482664008224853,
            -5.859010060715364
          ],
          [
            -0.35127333603764416,
            5.63120627649797,
            -4.856849067950642,
            -0.6879308786363441,
            -2.0089658852612833
          ]
        ]
      }
    ]
  }
}
